svm_type c_svc
kernel_type rbf
gamma 1
nr_class 2
total_sv 1050
rho 1
label 1 -1
nr_sv 525 525
SV
1 1:-1 
1 1:-1 
1 1:-1 
1 1:-1 
1 1:-1 
1 1:-1 
1 1:-1 
1 1:-1 
1 1:-1 
1 1:-1 
1 1:-1 
1 1:-1 
1 1:-1 
1 1:-1 
1 1:-1 
1 1:-1 
1 1:-1 
1 1:-1 
1 1:-1 
1 1:-1 
1 1:-1 
1 1:-1 
1 1:-1 
1 1:-1 
1 1:-1 
1 1:-1 
1 1:-1 
1 1:-1 
1 1:-1 
1 1:-1 
1 1:-1 
1 1:-1 
1 1:-1 
1 1:-1 
1 1:-1 
1 1:-1 
1 1:-1 
1 1:-1 
1 1:-1 
1 1:-1 
1 1:-1 
1 1:-1 
1 1:-1 
1 1:-1 
1 1:-1 
1 1:-1 
1 1:-1 
1 1:-1 
1 1:-1 
1 1:-1 
1 1:-1 
1 1:-1 
1 1:-1 
1 1:-1 
1 1:-1 
1 1:-1 
1 1:-1 
1 1:-1 
1 1:-1 
1 1:-1 
1 1:-1 
1 1:-1 
1 1:-1 
1 1:-1 
1 1:-1 
1 1:-1 
1 1:-1 
1 1:-1 
1 1:-1 
1 1:-1 
1 1:-1 
1 1:-1 
1 1:-1 
1 1:-1 
1 1:-1 
1 1:-1 
1 1:-1 
1 1:-1 
1 1:-1 
1 1:-1 
1 1:-1 
1 1:-1 
1 1:-1 
1 1:-1 
1 1:-1 
1 1:-1 
1 1:-1 
1 1:-1 
1 1:-1 
1 1:-1 
1 1:-1 
1 1:-1 
1 1:-1 
1 1:-1 
1 1:-1 
1 1:-1 
1 1:-1 
1 1:-1 
1 1:-1 
1 1:-1 
1 1:-1 
1 1:-1 
1 1:-1 
1 1:-1 
1 1:-1 
1 1:-1 
1 1:-1 
1 1:-1 
1 1:-1 
1 1:-1 
1 1:-1 
1 1:-1 
1 1:-1 
1 1:-1 
1 1:-1 
1 1:-1 
1 1:-1 
1 1:-1 
1 1:-1 
1 1:-1 
1 1:-1 
1 1:-1 
1 1:-1 
1 1:-1 
1 1:-1 
1 1:-1 
1 1:-1 
1 1:-1 
1 1:-1 
1 1:-1 
1 1:-1 
1 1:-1 
1 1:-1 
1 1:-1 
1 1:-1 
1 1:-1 
1 1:-1 
1 1:-1 
1 1:-1 
1 1:-1 
1 1:-1 
1 1:-1 
1 1:-1 
1 1:-1 
1 1:-1 
1 1:-1 
1 1:-1 
1 1:-1 
1 1:-1 
1 1:-1 
1 1:-1 
1 1:-1 
1 1:-1 
1 1:-1 
1 1:-1 
1 1:-1 
1 1:-1 
1 1:-1 
1 1:-1 
1 1:-1 
1 1:-1 
1 1:-1 
1 1:-1 
1 1:-1 
1 1:-1 
1 1:-1 
1 1:-1 
1 1:-1 
1 1:-1 
1 1:-1 
1 1:-1 
1 1:-1 
1 1:-1 
1 1:-1 
1 1:-1 
1 1:-1 
1 1:-1 
1 1:-1 
1 1:-1 
1 1:-1 
1 1:-1 
1 1:-1 
1 1:-1 
1 1:-1 
1 1:-1 
1 1:-1 
1 1:-1 
1 1:-1 
1 1:-1 
1 1:-1 
1 1:-1 
1 1:-1 
1 1:-1 
1 1:-1 
1 1:-1 
1 1:-1 
1 1:-1 
1 1:-1 
1 1:-1 
1 1:-1 
1 1:-1 
1 1:-1 
1 1:-1 
1 1:-1 
1 1:-1 
1 1:-1 
1 1:-1 
1 1:-1 
1 1:-1 
1 1:-1 
1 1:-1 
1 1:-1 
1 1:-1 
1 1:-1 
1 1:-1 
1 1:-1 
1 1:-1 
1 1:-1 
1 1:-1 
1 1:-1 
1 1:-1 
1 1:-1 
1 1:-1 
1 1:-1 
1 1:-1 
1 1:-1 
1 1:-1 
1 1:-1 
1 1:-1 
1 1:-1 
1 1:-1 
1 1:-1 
1 1:-1 
1 1:-1 
1 1:-1 
1 1:-1 
1 1:-1 
1 1:-1 
1 1:-1 
1 1:-1 
1 1:-1 
1 1:-1 
1 1:-1 
1 1:-1 
1 1:-1 
1 1:-1 
1 1:-1 
1 1:-1 
1 1:-1 
1 1:-1 
1 1:-1 
1 1:-1 
1 1:-1 
1 1:-1 
1 1:-1 
1 1:-1 
1 1:-1 
1 1:-1 
1 1:-1 
1 1:-1 
1 1:-1 
1 1:-1 
1 1:-1 
1 1:-1 
1 1:-1 
1 1:-1 
1 1:-1 
1 1:-1 
1 1:-1 
1 1:-1 
1 1:-1 
1 1:-1 
1 1:-1 
1 1:-1 
1 1:-1 
1 1:-1 
1 1:-1 
1 1:-1 
1 1:-1 
1 1:-1 
1 1:-1 
1 1:-1 
1 1:-1 
1 1:-1 
1 1:-1 
1 1:-1 
1 1:-1 
1 1:-1 
1 1:-1 
1 1:-1 
1 1:-1 
1 1:-1 
1 1:-1 
1 1:-1 
1 1:-1 
1 1:-1 
1 1:-1 
1 1:-1 
1 1:-1 
1 1:-1 
1 1:-1 
1 1:-1 
1 1:-1 
1 1:-1 
1 1:-1 
1 1:-1 
1 1:-1 
1 1:-1 
1 1:-1 
1 1:-1 
1 1:-1 
1 1:-1 
1 1:-1 
1 1:-1 
1 1:-1 
1 1:-1 
1 1:-1 
1 1:-1 
1 1:-1 
1 1:-1 
1 1:-1 
1 1:-1 
1 1:-1 
1 1:-1 
1 1:-1 
1 1:-1 
1 1:-1 
1 1:-1 
1 1:-1 
1 1:-1 
1 1:-1 
1 1:-1 
1 1:-1 
1 1:-1 
1 1:-1 
1 1:-1 
1 1:-1 
1 1:-1 
1 1:-1 
1 1:-1 
1 1:-1 
1 1:-1 
1 1:-1 
1 1:-1 
1 1:-1 
1 1:-1 
1 1:-1 
1 1:-1 
1 1:-1 
1 1:-1 
1 1:-1 
1 1:-1 
1 1:-1 
1 1:-1 
1 1:-1 
1 1:-1 
1 1:-1 
1 1:-1 
1 1:-1 
1 1:-1 
1 1:-1 
1 1:-1 
1 1:-1 
1 1:-1 
1 1:-1 
1 1:-1 
1 1:-1 
1 1:-1 
1 1:-1 
1 1:-1 
1 1:-1 
1 1:-1 
1 1:-1 
1 1:-1 
1 1:-1 
1 1:-1 
1 1:-1 
1 1:-1 
1 1:-1 
1 1:-1 
1 1:-1 
1 1:-1 
1 1:-1 
1 1:-1 
1 1:-1 
1 1:-1 
1 1:-1 
1 1:-1 
1 1:-1 
1 1:-1 
1 1:-1 
1 1:-1 
1 1:-1 
1 1:-1 
1 1:-1 
1 1:-1 
1 1:-1 
1 1:-1 
1 1:-1 
1 1:-1 
1 1:-1 
1 1:-1 
1 1:-1 
1 1:-1 
1 1:-1 
1 1:-1 
1 1:-1 
1 1:-1 
1 1:-1 
1 1:-1 
1 1:-1 
1 1:-1 
1 1:-1 
1 1:-1 
1 1:-1 
1 1:-1 
1 1:-1 
1 1:-1 
1 1:-1 
1 1:-1 
1 1:-1 
1 1:-1 
1 1:-1 
1 1:-1 
1 1:-1 
1 1:-1 
1 1:-1 
1 1:-1 
1 1:-1 
1 1:-1 
1 1:-1 
1 1:-1 
1 1:-1 
1 1:-1 
1 1:-1 
1 1:-1 
1 1:-1 
1 1:-1 
1 1:-1 
1 1:-1 
1 1:-1 
1 1:-1 
1 1:-1 
1 1:-1 
1 1:-1 
1 1:-1 
1 1:-1 
1 1:-1 
1 1:-1 
1 1:-1 
1 1:-1 
1 1:-1 
1 1:-1 
1 1:-1 
1 1:-1 
1 1:-1 
1 1:-1 
1 1:-1 
1 1:-1 
1 1:-1 
1 1:-1 
1 1:-1 
1 1:-1 
1 1:-1 
1 1:-1 
1 1:-1 
1 1:-1 
1 1:-1 
1 1:-1 
1 1:-1 
1 1:-1 
1 1:-1 
1 1:-1 
1 1:-1 
1 1:-1 
1 1:-1 
1 1:-1 
1 1:-1 
1 1:-1 
1 1:-1 
1 1:-1 
1 1:-1 
1 1:-1 
1 1:-1 
1 1:-1 
1 1:-1 
1 1:-1 
1 1:-1 
1 1:-1 
1 1:-1 
1 1:-1 
1 1:-1 
1 1:-1 
1 1:-1 
1 1:-1 
1 1:-1 
1 1:-1 
1 1:-1 
1 1:-1 
1 1:-1 
1 1:-1 
1 1:-1 
1 1:-1 
1 1:-1 
1 1:-1 
1 1:-1 
1 1:-1 
1 1:-1 
1 1:-1 
1 1:-1 
1 1:-1 
1 1:-1 
1 1:-1 
1 1:-1 
1 1:-1 
1 1:-1 
1 1:-1 
1 1:-1 
1 1:-1 
1 1:-1 
1 1:-1 
1 1:1 
1 1:-1 
1 1:-1 
1 1:-1 
-1 1:-1 
-1 1:-1 
-1 1:-1 
-1 1:-1 
-1 1:-1 
-1 1:-1 
-1 1:-1 
-1 1:-1 
-1 1:-1 
-1 1:-1 
-1 1:-1 
-1 1:-1 
-1 1:-1 
-1 1:-1 
-1 1:-1 
-1 1:-1 
-1 1:-1 
-1 1:-1 
-1 1:-1 
-1 1:-1 
-1 1:-1 
-1 1:-1 
-1 1:-1 
-1 1:-1 
-1 1:-1 
-1 1:-1 
-1 1:-1 
-1 1:-1 
-1 1:-1 
-1 1:-1 
-1 1:-1 
-1 1:-1 
-1 1:-1 
-1 1:-1 
-1 1:-1 
-1 1:-1 
-1 1:-1 
-1 1:-1 
-1 1:-1 
-1 1:-1 
-1 1:-1 
-1 1:-1 
-1 1:-1 
-1 1:-1 
-1 1:-1 
-1 1:-1 
-1 1:-1 
-1 1:-1 
-1 1:-1 
-1 1:-1 
-1 1:-1 
-1 1:-1 
-1 1:-1 
-1 1:-1 
-1 1:-1 
-1 1:-1 
-1 1:-1 
-1 1:-1 
-1 1:-1 
-1 1:-1 
-1 1:-1 
-1 1:-1 
-1 1:-1 
-1 1:-1 
-1 1:-1 
-1 1:-1 
-1 1:-1 
-1 1:-1 
-1 1:-1 
-1 1:-1 
-1 1:-1 
-1 1:-1 
-1 1:-1 
-1 1:-1 
-1 1:-1 
-1 1:-1 
-1 1:-1 
-1 1:-1 
-1 1:-1 
-1 1:-1 
-1 1:-1 
-1 1:-1 
-1 1:-1 
-1 1:-1 
-1 1:-1 
-1 1:-1 
-1 1:-1 
-1 1:-1 
-1 1:-1 
-1 1:-1 
-1 1:-1 
-1 1:-1 
-1 1:-1 
-1 1:-1 
-1 1:-1 
-1 1:-1 
-1 1:-1 
-1 1:-1 
-1 1:-1 
-1 1:-1 
-1 1:-1 
-1 1:-1 
-1 1:-1 
-1 1:-1 
-1 1:-1 
-1 1:-1 
-1 1:-1 
-1 1:-1 
-1 1:-1 
-1 1:-1 
-1 1:-1 
-1 1:-1 
-1 1:-1 
-1 1:-1 
-1 1:-1 
-1 1:-1 
-1 1:-1 
-1 1:-1 
-1 1:-1 
-1 1:-1 
-1 1:-1 
-1 1:-1 
-1 1:-1 
-1 1:-1 
-1 1:-1 
-1 1:-1 
-1 1:-1 
-1 1:-1 
-1 1:-1 
-1 1:-1 
-1 1:-1 
-1 1:-1 
-1 1:-1 
-1 1:-1 
-1 1:-1 
-1 1:-1 
-1 1:-1 
-1 1:-1 
-1 1:-1 
-1 1:-1 
-1 1:-1 
-1 1:-1 
-1 1:-1 
-1 1:-1 
-1 1:-1 
-1 1:-1 
-1 1:-1 
-1 1:-1 
-1 1:-1 
-1 1:-1 
-1 1:-1 
-1 1:-1 
-1 1:-1 
-1 1:-1 
-1 1:-1 
-1 1:-1 
-1 1:-1 
-1 1:-1 
-1 1:-1 
-1 1:-1 
-1 1:-1 
-1 1:-1 
-1 1:-1 
-1 1:-1 
-1 1:-1 
-1 1:-1 
-1 1:-1 
-1 1:-1 
-1 1:-1 
-1 1:-1 
-1 1:-1 
-1 1:-1 
-1 1:-1 
-1 1:-1 
-1 1:-1 
-1 1:-1 
-1 1:-1 
-1 1:-1 
-1 1:-1 
-1 1:-1 
-1 1:-1 
-1 1:-1 
-1 1:-1 
-1 1:-1 
-1 1:-1 
-1 1:-1 
-1 1:-1 
-1 1:-1 
-1 1:-1 
-1 1:-1 
-1 1:-1 
-1 1:-1 
-1 1:-1 
-1 1:-1 
-1 1:-1 
-1 1:-1 
-1 1:-1 
-1 1:-1 
-1 1:-1 
-1 1:-1 
-1 1:-1 
-1 1:-1 
-1 1:-1 
-1 1:-1 
-1 1:-1 
-1 1:-1 
-1 1:-1 
-1 1:-1 
-1 1:-1 
-1 1:-1 
-1 1:-1 
-1 1:-1 
-1 1:-1 
-1 1:-1 
-1 1:-1 
-1 1:-1 
-1 1:-1 
-1 1:-1 
-1 1:-1 
-1 1:-1 
-1 1:-1 
-1 1:-1 
-1 1:-1 
-1 1:-1 
-1 1:-1 
-1 1:-1 
-1 1:-1 
-1 1:-1 
-1 1:-1 
-1 1:-1 
-1 1:-1 
-1 1:-1 
-1 1:-1 
-1 1:-1 
-1 1:-1 
-1 1:-1 
-1 1:-1 
-1 1:-1 
-1 1:-1 
-1 1:-1 
-1 1:-1 
-1 1:-1 
-1 1:-1 
-1 1:-1 
-1 1:-1 
-1 1:-1 
-1 1:-1 
-1 1:-1 
-1 1:-1 
-1 1:-1 
-1 1:-1 
-1 1:-1 
-1 1:-1 
-1 1:-1 
-1 1:-1 
-1 1:-1 
-1 1:-1 
-1 1:-1 
-1 1:-1 
-1 1:-1 
-1 1:-1 
-1 1:-1 
-1 1:-1 
-1 1:-1 
-1 1:-1 
-1 1:-1 
-1 1:-1 
-1 1:-1 
-1 1:-1 
-1 1:-1 
-1 1:-1 
-1 1:-1 
-1 1:-1 
-1 1:-1 
-1 1:-1 
-1 1:-1 
-1 1:-1 
-1 1:-1 
-1 1:-1 
-1 1:-1 
-1 1:-1 
-1 1:-1 
-1 1:-1 
-1 1:-1 
-1 1:-1 
-1 1:-1 
-1 1:-1 
-1 1:-1 
-1 1:-1 
-1 1:-1 
-1 1:-1 
-1 1:-1 
-1 1:-1 
-1 1:-1 
-1 1:-1 
-1 1:-1 
-1 1:-1 
-1 1:-1 
-1 1:-1 
-1 1:-1 
-1 1:-1 
-1 1:-1 
-1 1:-1 
-1 1:-1 
-1 1:-1 
-1 1:-1 
-1 1:-1 
-1 1:-1 
-1 1:-1 
-1 1:-1 
-1 1:-1 
-1 1:-1 
-1 1:-1 
-1 1:-1 
-1 1:-1 
-1 1:-1 
-1 1:-1 
-1 1:-1 
-1 1:-1 
-1 1:-1 
-1 1:-1 
-1 1:-1 
-1 1:-1 
-1 1:-1 
-1 1:-1 
-1 1:-1 
-1 1:-1 
-1 1:-1 
-1 1:-1 
-1 1:-1 
-1 1:-1 
-1 1:-1 
-1 1:-1 
-1 1:-1 
-1 1:-1 
-1 1:-1 
-1 1:-1 
-1 1:-1 
-1 1:-1 
-1 1:-1 
-1 1:-1 
-1 1:-1 
-1 1:-1 
-1 1:-1 
-1 1:-1 
-1 1:-1 
-1 1:-1 
-1 1:-1 
-1 1:-1 
-1 1:-1 
-1 1:-1 
-1 1:-1 
-1 1:-1 
-1 1:-1 
-1 1:-1 
-1 1:-1 
-1 1:-1 
-1 1:-1 
-1 1:-1 
-1 1:-1 
-1 1:-1 
-1 1:-1 
-1 1:-1 
-1 1:-1 
-1 1:-1 
-1 1:-1 
-1 1:-1 
-1 1:-1 
-1 1:-1 
-1 1:-1 
-1 1:-1 
-1 1:-1 
-1 1:-1 
-1 1:-1 
-1 1:-1 
-1 1:-1 
-1 1:-1 
-1 1:-1 
-1 1:-1 
-1 1:-1 
-1 1:-1 
-1 1:-1 
-1 1:-1 
-1 1:-1 
-1 1:-1 
-1 1:-1 
-1 1:-1 
-1 1:-1 
-1 1:-1 
-1 1:-1 
-1 1:-1 
-1 1:-1 
-1 1:-1 
-1 1:-1 
-1 1:-1 
-1 1:-1 
-1 1:-1 
-1 1:-1 
-1 1:-1 
-1 1:-1 
-1 1:-1 
-1 1:-1 
-1 1:-1 
-1 1:-1 
-1 1:-1 
-1 1:-1 
-1 1:-1 
-1 1:-1 
-1 1:-1 
-1 1:-1 
-1 1:-1 
-1 1:-1 
-1 1:-1 
-1 1:-1 
-1 1:-1 
-1 1:-1 
-1 1:-1 
-1 1:-1 
-1 1:-1 
-1 1:-1 
-1 1:-1 
-1 1:-1 
-1 1:-1 
-1 1:-1 
-1 1:-1 
-1 1:-1 
-1 1:-1 
-1 1:-1 
-1 1:-1 
-1 1:-1 
-1 1:-1 
-1 1:-1 
-1 1:-1 
-1 1:-1 
-1 1:-1 
-1 1:-1 
-1 1:-1 
-1 1:-1 
-1 1:-1 
-1 1:-1 
-1 1:-1 
-1 1:-1 
-1 1:-1 
-1 1:-1 
-1 1:-1 
-1 1:-1 
-1 1:-1 
-1 1:-1 
-1 1:-1 
-1 1:-1 
-1 1:-1 
-1 1:-1 
-1 1:1 
-1 1:-1 
-1 1:-1 
-1 1:-1 
-1 1:-1 
-1 1:-1 
-1 1:-1 
-1 1:-1 
-1 1:-1 
-1 1:-1 
-1 1:-1 
-1 1:-1 
-1 1:-1 
-1 1:-1 
-1 1:-1 
-1 1:-1 
-1 1:-1 
-1 1:-1 
-1 1:-1 
-1 1:-1 
-1 1:-1 
-1 1:-1 
-1 1:-1 
-1 1:-1 
-1 1:-1 
-1 1:-1 
-1 1:-1 
-1 1:-1 
-1 1:-1 
-1 1:-1 
-1 1:-1 
-1 1:-1 
-1 1:-1 
-1 1:-1 
-1 1:-1 
-1 1:-1 
-1 1:-1 
-1 1:-1 
-1 1:-1 
-1 1:-1 
-1 1:-1 
-1 1:-1 
-1 1:-1 
-1 1:-1 
-1 1:-1 
-1 1:-1 
-1 1:-1 
-1 1:-1 
-1 1:-1 
-1 1:-1 
-1 1:-1 
-1 1:-1 
-1 1:-1 
-1 1:-1 
-1 1:-1 
-1 1:-1 
-1 1:-1 
-1 1:-1 
-1 1:-1 
-1 1:-1 
-1 1:-1 
-1 1:-1 
-1 1:-1 
-1 1:-1 
-1 1:-1 
-1 1:-1 
-1 1:-1 
-1 1:-1 
-1 1:-1 
-1 1:-1 
-1 1:-1 
-1 1:-1 
-1 1:-1 
